{"learner":{"attributes":{"scikit_learn":"{\"_estimator_type\": \"classifier\"}"},"feature_names":["Pregnancies","Glucose","BloodPressure","SkinThickness","Insulin","BMI","DiabetesPedigreeFunction","Age"],"feature_types":["int","float","float","float","float","float","float","int"],"gradient_booster":{"model":{"gbtree_model_param":{"num_parallel_tree":"1","num_trees":"20"},"iteration_indptr":[0,1,2,3,4,5,6,7,8,9,10,11,12,13,14,15,16,17,18,19,20],"tree_info":[0,0,0,0,0,0,0,0,0,0,0,0,0,0,0,0,0,0,0,0],"trees":[{"base_weights":[-2.415683E-2,-5.8313745E-1,1.1048429E0,-1.0278442E0,-1.7869957E-2,5.7251777E-2,1.553791E0,-2.1979764E-1,1.2090844E-1,-2.6271558E-1,8.027817E-2,-6.75403E-2,2.793612E-1,1.0336447E-1,3.7600115E-1],"categories":[],"categories_nodes":[],"categories_segments":[],"categories_sizes":[],"default_left":[0,0,0,0,0,0,0,0,0,0,0,0,0,0,0],"id":0,"left_children":[1,3,5,7,9,11,13,-1,-1,-1,-1,-1,-1,-1,-1],"loss_changes":[5.985879E1,1.5921984E1,1.4687042E1,4.784008E0,1.6247988E1,6.007357E0,6.454891E0,0E0,0E0,0E0,0E0,0E0,0E0,0E0,0E0],"parents":[2147483647,0,0,1,1,2,2,3,3,4,4,5,5,6,6],"right_children":[2,4,6,8,10,12,14,-1,-1,-1,-1,-1,-1,-1,-1],"split_conditions":[1.29E2,3E1,3E1,7E0,2.67E1,1.67E2,2.63E-1,-2.1979764E-1,1.2090844E-1,-2.6271558E-1,8.027817E-2,-6.75403E-2,2.793612E-1,1.0336447E-1,3.7600115E-1],"split_indices":[1,7,5,0,5,1,6,0,0,0,0,0,0,0,0],"split_type":[0,0,0,0,0,0,0,0,0,0,0,0,0,0,0],"sum_hessian":[9.28291E1,6.2411797E1,3.0417303E1,3.4472942E1,2.7938856E1,9.4631605E0,2.0954142E1,3.3346375E1,1.1265668E0,6.308774E0,2.1630081E1,7.8859673E0,1.5771935E0,5.632834E0,1.5321308E1],"tree_param":{"num_deleted":"0","num_feature":"8","num_nodes":"15","size_leaf_vector":"1"}},{"base_weights":[-2.255998E-2,-7.8410566E-1,5.8276016E-1,-9.588181E-1,4.64058E-2,-4.7505447E-1,8.873139E-1,-2.2664301E-1,-1.1437421E-1,-7.998114E-2,1.8517733E-1,-1.405588E-1,1.7742006E-1,1.1184436E-1,3.4737286E-1],"categories":[],"categories_nodes":[],"categories_segments":[],"categories_sizes":[],"default_left":[0,0,0,0,0,0,0,0,0,0,0,0,0,0,0],"id":1,"left_children":[1,3,5,7,9,11,13,-1,-1,-1,-1,-1,-1,-1,-1],"loss_changes":[4.320008E1,6.064541E0,1.7249226E1,1.6682129E0,3.5751228E0,4.4478035E0,1.0430401E1,0E0,0E0,0E0,0E0,0E0,0E0,0E0,0E0],"parents":[2147483647,0,0,1,1,2,2,3,3,4,4,5,5,6,6],"right_children":[2,4,6,8,10,12,14,-1,-1,-1,-1,-1,-1,-1,-1],"split_conditions":[1.12E2,6.3E-1,2.81E1,1.02E2,7E0,1.67E2,1.55E2,-2.2664301E-1,-1.1437421E-1,-7.998114E-2,1.8517733E-1,-1.405588E-1,1.7742006E-1,1.1184436E-1,3.4737286E-1],"split_indices":[1,6,5,1,0,1,1,0,0,0,0,0,0,0,0],"split_type":[0,0,0,0,0,0,0,0,0,0,0,0,0,0,0],"sum_hessian":[9.172254E1,4.048877E1,5.1233772E1,3.3324E1,7.16477E0,1.1328021E1,3.990575E1,2.1641552E1,1.1682448E1,5.114567E0,2.0502036E0,1.0120093E1,1.2079273E0,2.9984241E1,9.921509E0],"tree_param":{"num_deleted":"0","num_feature":"8","num_nodes":"15","size_leaf_vector":"1"}},{"base_weights":[-2.0145506E-2,-6.804474E-1,4.674529E-1,-1.0008374E0,-1.9350973E-1,1.8990627E-1,1.2299732E0,-2.1417372E-1,3.200883E-2,-2.1632598E-1,7.603573E-2,-3.197628E-2,1.8662348E-1,2.8150058E-1,-4.074774E-2],"categories":[],"categories_nodes":[],"categories_segments":[],"categories_sizes":[],"default_left":[0,0,0,0,0,0,0,0,0,0,0,0,0,0,0],"id":2,"left_children":[1,3,5,7,9,11,13,-1,-1,-1,-1,-1,-1,-1,-1],"loss_changes":[2.9552048E1,5.887047E0,1.0945603E1,2.063095E0,8.923807E0,1.05243E1,3.828104E0,0E0,0E0,0E0,0E0,0E0,0E0,0E0,0E0],"parents":[2147483647,0,0,1,1,2,2,3,3,4,4,5,5,6,6],"right_children":[2,4,6,8,10,12,14,-1,-1,-1,-1,-1,-1,-1,-1],"split_conditions":[1.12E2,3.1E1,1.55E2,4E1,9.5E1,5.29E-1,6E1,-2.1417372E-1,3.200883E-2,-2.1632598E-1,7.603573E-2,-3.197628E-2,1.8662348E-1,2.8150058E-1,-4.074774E-2],"split_indices":[1,7,1,3,1,6,7,0,0,0,0,0,0,0,0],"split_type":[0,0,0,0,0,0,0,0,0,0,0,0,0,0,0],"sum_hessian":[8.97994E1,3.7976467E1,5.1822937E1,2.2268866E1,1.5707602E1,3.890948E1,1.2913452E1,2.1075035E1,1.1938301E0,5.816991E0,9.890611E0,2.6991146E1,1.1918337E1,1.1506889E1,1.4065626E0],"tree_param":{"num_deleted":"0","num_feature":"8","num_nodes":"15","size_leaf_vector":"1"}},{"base_weights":[-1.956761E-2,-6.9612134E-1,3.3393672E-1,-1.0358398E0,-4.1997525E-1,-3.7628928E-1,5.962995E-1,-2.3349464E-1,-5.623473E-2,-1.7666319E-1,-2.5777414E-2,-1.0718612E-1,1.4648096E-1,1.5667398E-2,1.8098487E-1],"categories":[],"categories_nodes":[],"categories_segments":[],"categories_sizes":[],"default_left":[0,0,0,0,0,0,0,0,0,0,0,0,0,0,0],"id":3,"left_children":[1,3,5,7,9,11,13,-1,-1,-1,-1,-1,-1,-1,-1],"loss_changes":[2.1368345E1,2.4405966E0,1.1166212E1,9.6936035E-1,2.3935142E0,3.3046672E0,6.8456507E0,0E0,0E0,0E0,0E0,0E0,0E0,0E0,0E0],"parents":[2147483647,0,0,1,1,2,2,3,3,4,4,5,5,6,6],"right_children":[2,4,6,8,10,12,14,-1,-1,-1,-1,-1,-1,-1,-1],"split_conditions":[1.08E2,2.6E1,2.89E1,3.59E1,2.96E1,1.67E2,3E1,-2.3349464E-1,-5.623473E-2,-1.7666319E-1,-2.5777414E-2,-1.0718612E-1,1.4648096E-1,1.5667398E-2,1.8098487E-1],"split_indices":[1,7,5,5,5,1,7,0,0,0,0,0,0,0,0],"split_type":[0,0,0,0,0,0,0,0,0,0,0,0,0,0,0],"sum_hessian":[8.737378E1,2.9653078E1,5.7720703E1,1.2062536E1,1.7590542E1,1.5453436E1,4.226727E1,9.805242E0,2.2572944E0,6.0021176E0,1.1588425E1,1.3959949E1,1.4934877E0,1.624957E1,2.6017696E1],"tree_param":{"num_deleted":"0","num_feature":"8","num_nodes":"15","size_leaf_vector":"1"}},{"base_weights":[-2.1988738E-2,-8.259494E-1,2.1221931E-1,-9.253658E-1,-2.1571178E-2,-3.927752E-1,4.9795738E-1,-2.0237075E-1,1.5449867E-2,1.2909843E-1,-1.4502855E-1,-1.16982E-1,1.2963048E-1,-1.5200372E-1,1.2646118E-1],"categories":[],"categories_nodes":[],"categories_segments":[],"categories_sizes":[],"default_left":[0,0,0,0,0,0,0,0,0,0,0,0,0,0,0],"id":4,"left_children":[1,3,5,7,9,11,13,-1,-1,-1,-1,-1,-1,-1,-1],"loss_changes":[1.6366394E1,1.5476742E0,1.1844474E1,1.5889807E0,1.9606249E0,4.814186E0,8.290336E0,0E0,0E0,0E0,0E0,0E0,0E0,0E0,0E0],"parents":[2147483647,0,0,1,1,2,2,3,3,4,4,5,5,6,6],"right_children":[2,4,6,8,10,12,14,-1,-1,-1,-1,-1,-1,-1,-1],"split_conditions":[1.02E2,4.3E1,2.54E-1,7.85E-1,3.8E-1,1.59E2,2.55E1,-2.0237075E-1,1.5449867E-2,1.2909843E-1,-1.4502855E-1,-1.16982E-1,1.2963048E-1,-1.5200372E-1,1.2646118E-1],"split_indices":[1,7,6,6,6,1,5,0,0,0,0,0,0,0,0],"split_type":[0,0,0,0,0,0,0,0,0,0,0,0,0,0,0],"sum_hessian":[8.4988434E1,1.8603174E1,6.638526E1,1.642298E1,2.1801956E0,2.1175558E1,4.52097E1,1.5110314E1,1.312665E0,1.1615076E0,1.0186878E0,1.8245825E1,2.9297326E0,3.913014E0,4.1296688E1],"tree_param":{"num_deleted":"0","num_feature":"8","num_nodes":"15","size_leaf_vector":"1"}},{"base_weights":[-2.4034169E-2,-7.4614984E-1,1.695382E-1,-8.4496135E-1,-2.4959827E-2,-2.3265253E-1,4.8480657E-1,-1.8673828E-1,1.3635011E-2,4.1962378E-2,-4.8618402E-2,-8.122202E-2,1.9895713E-1,1.2890375E-1,-7.4743025E-2],"categories":[],"categories_nodes":[],"categories_segments":[],"categories_sizes":[],"default_left":[0,0,0,0,0,0,0,0,0,0,0,0,0,0,0],"id":5,"left_children":[1,3,5,7,9,11,13,-1,-1,-1,-1,-1,-1,-1,-1],"loss_changes":[1.1826759E1,1.2530556E0,8.585951E0,1.3352861E0,2.141104E-1,6.799716E0,5.421707E0,0E0,0E0,0E0,0E0,0E0,0E0,0E0,0E0],"parents":[2147483647,0,0,1,1,2,2,3,3,4,4,5,5,6,6],"right_children":[2,4,6,8,10,12,14,-1,-1,-1,-1,-1,-1,-1,-1],"split_conditions":[1.02E2,4.3E1,3.1E1,7.85E-1,7E0,4.22E1,5.5E1,-1.8673828E-1,1.3635011E-2,4.1962378E-2,-4.8618402E-2,-8.122202E-2,1.9895713E-1,1.2890375E-1,-7.4743025E-2],"split_indices":[1,7,7,6,0,5,7,0,0,0,0,0,0,0,0],"split_type":[0,0,0,0,0,0,0,0,0,0,0,0,0,0,0],"sum_hessian":[8.270383E1,1.6879765E1,6.5824066E1,1.4694785E1,2.1849792E0,2.9039791E1,3.6784275E1,1.33728285E1,1.3219569E0,1.0707229E0,1.1142563E0,2.60304E1,3.0093913E0,3.1224752E1,5.5595207E0],"tree_param":{"num_deleted":"0","num_feature":"8","num_nodes":"15","size_leaf_vector":"1"}},{"base_weights":[-2.2176515E-2,-1.7296886E-1,7.908156E-1,-9.764777E-1,-9.880852E-3,2.7737865E-1,1.1916718E0,-2.229195E-1,-5.961417E-3,-1.432238E-1,2.1057809E-2,-8.675842E-3,1.8313305E-1,2.627853E-1,5.4025035E-2],"categories":[],"categories_nodes":[],"categories_segments":[],"categories_sizes":[],"default_left":[0,0,0,0,0,0,0,0,0,0,0,0,0,0,0],"id":6,"left_children":[1,3,5,7,9,11,13,-1,-1,-1,-1,-1,-1,-1,-1],"loss_changes":[1.0122629E1,9.101932E0,2.3293676E0,1.4993944E0,4.8588514E0,1.4666485E0,4.285612E-1,0E0,0E0,0E0,0E0,0E0,0E0,0E0,0E0],"parents":[2147483647,0,0,1,1,2,2,3,3,4,4,5,5,6,6],"right_children":[2,4,6,8,10,12,14,-1,-1,-1,-1,-1,-1,-1,-1],"split_conditions":[1.55E2,2.64E1,3.28E-1,1.31E2,9.5E1,3.52E1,1.6E2,-2.229195E-1,-5.961417E-3,-1.432238E-1,2.1057809E-2,-8.675842E-3,1.8313305E-1,2.627853E-1,5.4025035E-2],"split_indices":[1,5,6,1,1,5,4,0,0,0,0,0,0,0,0],"split_type":[0,0,0,0,0,0,0,0,0,0,0,0,0,0,0],"sum_hessian":[8.045524E1,6.8531395E1,1.192384E1,1.0721389E1,5.781001E1,5.9696174E0,5.954222E0,9.201498E0,1.5198903E0,7.3739524E0,5.0436058E1,4.5933576E0,1.3762597E0,4.8809233E0,1.0732989E0],"tree_param":{"num_deleted":"0","num_feature":"8","num_nodes":"15","size_leaf_vector":"1"}},{"base_weights":[-1.8111797E-2,-1.4983727E-1,7.038533E-1,-9.1016954E-1,-1.0927042E-2,8.4559506E-1,-5.3987928E-2,-2.1138139E-1,-5.2522207E-3,-1.020939E-1,2.921009E-2,4.167197E-2,1.9541088E-1],"categories":[],"categories_nodes":[],"categories_segments":[],"categories_sizes":[],"default_left":[0,0,0,0,0,0,0,0,0,0,0,0,0],"id":7,"left_children":[1,3,5,7,9,11,-1,-1,-1,-1,-1,-1,-1],"loss_changes":[7.6407194E0,7.1543994E0,1.9399929E0,1.3297453E0,4.6514664E0,7.235651E-1,0E0,0E0,0E0,0E0,0E0,0E0,0E0],"parents":[2147483647,0,0,1,1,2,2,3,3,4,4,5,5],"right_children":[2,4,6,8,10,12,-1,-1,-1,-1,-1,-1,-1],"split_conditions":[1.55E2,2.64E1,6E1,1.31E2,2.5E1,7E1,-5.3987928E-2,-2.1138139E-1,-5.2522207E-3,-1.020939E-1,2.921009E-2,4.167197E-2,1.9541088E-1],"split_indices":[1,5,7,1,7,2,0,0,0,0,0,0,0],"split_type":[0,0,0,0,0,0,0,0,0,0,0,0,0],"sum_hessian":[7.8234085E1,6.683266E1,1.1401431E1,9.466278E0,5.736638E1,1.0067666E1,1.3337647E0,7.9506707E0,1.5156076E0,1.317818E1,4.4188198E1,2.1638083E0,7.903858E0],"tree_param":{"num_deleted":"0","num_feature":"8","num_nodes":"13","size_leaf_vector":"1"}},{"base_weights":[-1.7578274E-2,-5.9938794E-1,1.16907515E-1,-1.865606E-1,-3.403331E-1,-3.452857E-1,3.2686135E-1,3.6563754E-2,-1.2837017E-1,-9.156257E-2,1.6635014E-1,-1.9489903E-2,1.1265927E-1],"categories":[],"categories_nodes":[],"categories_segments":[],"categories_sizes":[],"default_left":[0,0,0,0,0,0,0,0,0,0,0,0,0],"id":8,"left_children":[1,3,5,-1,7,9,11,-1,-1,-1,-1,-1,-1],"loss_changes":[6.117187E0,9.49924E-1,6.285599E0,0E0,1.6682354E0,3.0769E0,4.4946218E0,0E0,0E0,0E0,0E0,0E0,0E0],"parents":[2147483647,0,0,1,1,2,2,4,4,5,5,6,6],"right_children":[2,4,6,-1,8,10,12,-1,-1,-1,-1,-1,-1],"split_conditions":[1.02E2,2.6E1,2.54E-1,-1.865606E-1,3.3E1,1.8E2,2.9E1,3.6563754E-2,-1.2837017E-1,-9.156257E-2,1.6635014E-1,-1.9489903E-2,1.1265927E-1],"split_indices":[1,7,6,0,7,1,7,0,0,0,0,0,0],"split_type":[0,0,0,0,0,0,0,0,0,0,0,0,0],"sum_hessian":[7.628422E1,1.3673464E1,6.2610752E1,4.841477E0,8.831987E0,1.9355934E1,4.3254818E1,3.373108E0,5.4588795E0,1.8224665E1,1.1312696E0,1.5688237E1,2.756658E1],"tree_param":{"num_deleted":"0","num_feature":"8","num_nodes":"13","size_leaf_vector":"1"}},{"base_weights":[-1.7248444E-2,-6.373242E-1,8.523372E-2,-2.0051268E-1,1.6709232E-1,-3.2019448E-2,6.943307E-1,-1.22689046E-1,1.5253185E-1,-2.2065964E-2,1.4229763E-1,1.972788E-1,-4.860407E-2],"categories":[],"categories_nodes":[],"categories_segments":[],"categories_sizes":[],"default_left":[0,0,0,0,0,0,0,0,0,0,0,0,0],"id":9,"left_children":[1,3,5,-1,7,9,11,-1,-1,-1,-1,-1,-1],"loss_changes":[4.8495674E0,3.3466792E0,4.7101107E0,0E0,2.437019E0,3.339026E0,3.1526184E0,0E0,0E0,0E0,0E0,0E0,0E0],"parents":[2147483647,0,0,1,1,2,2,4,4,5,5,6,6],"right_children":[2,4,6,-1,8,10,12,-1,-1,-1,-1,-1,-1],"split_conditions":[2.64E1,1.31E2,7.32E-1,-2.0051268E-1,3E0,4.23E1,3.68E1,-1.22689046E-1,1.5253185E-1,-2.2065964E-2,1.4229763E-1,1.972788E-1,-4.860407E-2],"split_indices":[5,1,6,0,0,5,5,0,0,0,0,0,0],"split_type":[0,0,0,0,0,0,0,0,0,0,0,0,0],"sum_hessian":[7.4460175E1,9.820663E0,6.463951E1,6.584636E0,3.2360272E0,5.4999382E1,9.64013E0,1.3875346E0,1.8484925E0,5.0528996E1,4.470387E0,7.3101015E0,2.3300288E0],"tree_param":{"num_deleted":"0","num_feature":"8","num_nodes":"13","size_leaf_vector":"1"}},{"base_weights":[-1.4001702E-2,-3.8883469E-1,1.4095032E-1,-8.4005237E-1,-1.8049005E-1,-6.4160776E-1,2.3430526E-1,-2.387151E-2,-1.9198439E-1,1.2697697E-2,-1.237087E-1,-2.2150062E-1,7.208705E-2,2.4700718E-2,1.4628065E-1],"categories":[],"categories_nodes":[],"categories_segments":[],"categories_sizes":[],"default_left":[0,0,0,0,0,0,0,0,0,0,0,0,0,0,0],"id":10,"left_children":[1,3,5,7,9,11,13,-1,-1,-1,-1,-1,-1,-1,-1],"loss_changes":[4.362272E0,1.9125562E0,4.037303E0,4.6097708E-1,1.7808089E0,3.1713965E0,2.5682056E0,0E0,0E0,0E0,0E0,0E0,0E0,0E0,0E0],"parents":[2147483647,0,0,1,1,2,2,3,3,4,4,5,5,6,6],"right_children":[2,4,6,8,10,12,14,-1,-1,-1,-1,-1,-1,-1,-1],"split_conditions":[1.08E2,2.5E1,2.2E1,1.67E-1,7.8E1,1.46E2,7.17E-1,-2.387151E-2,-1.9198439E-1,1.2697697E-2,-1.237087E-1,-2.2150062E-1,7.208705E-2,2.4700718E-2,1.4628065E-1],"split_indices":[1,7,3,6,2,1,6,0,0,0,0,0,0,0,0],"split_type":[0,0,0,0,0,0,0,0,0,0,0,0,0,0,0],"sum_hessian":[7.3162895E1,2.0957285E1,5.220561E1,5.6622863E0,1.5294999E1,4.93816E0,4.7267452E1,1.0920792E0,4.570207E0,1.0372816E1,4.9221835E0,3.2990408E0,1.639119E0,3.9672924E1,7.594528E0],"tree_param":{"num_deleted":"0","num_feature":"8","num_nodes":"15","size_leaf_vector":"1"}},{"base_weights":[-1.6945614E-2,-1.0485192E-1,5.74842E-1,-8.0364436E-1,-2.390928E-3,7.334734E-1,-3.1555112E-2,-1.9045417E-1,-3.0807143E-2,-3.14846E-2,6.013871E-2,5.515731E-2,1.8196844E-1],"categories":[],"categories_nodes":[],"categories_segments":[],"categories_sizes":[],"default_left":[0,0,0,0,0,0,0,0,0,0,0,0,0],"id":11,"left_children":[1,3,5,7,9,11,-1,-1,-1,-1,-1,-1,-1],"loss_changes":[3.8477669E0,4.5972676E0,1.2279594E0,6.460967E-1,2.7267802E0,3.9840412E-1,0E0,0E0,0E0,0E0,0E0,0E0,0E0],"parents":[2147483647,0,0,1,1,2,2,3,3,4,4,5,5],"right_children":[2,4,6,8,10,12,-1,-1,-1,-1,-1,-1,-1],"split_conditions":[1.6E2,2.64E1,5.3E1,1.31E2,5.29E-1,7.2E1,-3.1555112E-2,-1.9045417E-1,-3.0807143E-2,-3.14846E-2,6.013871E-2,5.515731E-2,1.8196844E-1],"split_indices":[1,5,7,1,6,2,0,0,0,0,0,0,0],"split_type":[0,0,0,0,0,0,0,0,0,0,0,0,0],"sum_hessian":[7.180582E1,6.3235413E1,8.570399E0,7.211176E0,5.602424E1,7.044012E0,1.5263869E0,5.4893355E0,1.7218404E0,3.738293E1,1.8641308E1,2.672477E0,4.3715353E0],"tree_param":{"num_deleted":"0","num_feature":"8","num_nodes":"13","size_leaf_vector":"1"}},{"base_weights":[-1.4302811E-2,-4.7601393E-1,8.260448E-2,-6.051573E-1,3.3546135E-2,-5.7281685E-1,1.5950517E-1,-1.5580912E-1,-2.5188997E-3,-1.7816918E-1,5.5209883E-2,1.985329E-2,1.9482167E-1],"categories":[],"categories_nodes":[],"categories_segments":[],"categories_sizes":[],"default_left":[0,0,0,0,0,0,0,0,0,0,0,0,0],"id":12,"left_children":[1,3,5,7,-1,9,11,-1,-1,-1,-1,-1,-1],"loss_changes":[3.226361E0,1.1410747E0,3.1016517E0,1.0857236E0,0E0,1.9978504E0,2.5646791E0,0E0,0E0,0E0,0E0,0E0,0E0],"parents":[2147483647,0,0,1,1,2,2,3,3,5,5,6,6],"right_children":[2,4,6,8,-1,10,12,-1,-1,-1,-1,-1,-1],"split_conditions":[1.02E2,4.3E1,2.2E1,3.2E1,3.3546135E-2,1.46E2,1.8E2,-1.5580912E-1,-2.5188997E-3,-1.7816918E-1,5.5209883E-2,1.985329E-2,1.9482167E-1],"split_indices":[1,7,3,3,0,1,1,0,0,0,0,0,0],"split_type":[0,0,0,0,0,0,0,0,0,0,0,0,0],"sum_hessian":[7.022964E1,1.1504557E1,5.872508E1,9.632163E0,1.8723935E0,5.4895024E0,5.3235577E1,7.203564E0,2.4285996E0,3.957402E0,1.5321004E0,5.0614563E1,2.621015E0],"tree_param":{"num_deleted":"0","num_feature":"8","num_nodes":"13","size_leaf_vector":"1"}},{"base_weights":[-1.3122385E-2,-5.44673E-1,6.0639605E-2,-1.8103944E-1,7.750228E-2,-1.9465126E-1,9.427541E-2,-1.2458219E-1,1.2788573E-1,6.811221E-3,1.4389895E-1],"categories":[],"categories_nodes":[],"categories_segments":[],"categories_sizes":[],"default_left":[0,0,0,0,0,0,0,0,0,0,0],"id":13,"left_children":[1,3,5,-1,7,-1,9,-1,-1,-1,-1],"loss_changes":[2.7756805E0,2.004649E0,2.2592213E0,0E0,2.0061297E0,0E0,2.282501E0,0E0,0E0,0E0,0E0],"parents":[2147483647,0,0,1,1,2,2,4,4,6,6],"right_children":[2,4,6,-1,8,-1,10,-1,-1,-1,-1],"split_conditions":[2.64E1,1.31E2,1.7E1,-1.8103944E-1,3E0,-1.9465126E-1,1.67E2,-1.2458219E-1,1.2788573E-1,6.811221E-3,1.4389895E-1],"split_indices":[5,1,3,0,0,0,1,0,0,0,0],"split_type":[0,0,0,0,0,0,0,0,0,0,0],"sum_hessian":[6.8950905E1,7.6242337E0,6.1326675E1,4.539118E0,3.085116E0,1.0521011E0,6.0274574E1,1.3250185E0,1.7600973E0,5.594097E1,4.3336005E0],"tree_param":{"num_deleted":"0","num_feature":"8","num_nodes":"11","size_leaf_vector":"1"}},{"base_weights":[-1.449533E-2,-3.7580103E-1,8.131158E-2,-6.900712E-1,3.8096616E-1,-2.5047569E-2,5.461647E-1,-1.9860068E-1,8.486461E-2,1.9840637E-1,-8.5851625E-2,1.1429693E-2,-1.2597775E-1,1.8439138E-2,1.9353156E-1],"categories":[],"categories_nodes":[],"categories_segments":[],"categories_sizes":[],"default_left":[0,0,0,0,0,0,0,0,0,0,0,0,0,0,0],"id":14,"left_children":[1,3,5,7,9,11,13,-1,-1,-1,-1,-1,-1,-1,-1],"loss_changes":[2.4184897E0,3.7438617E0,2.7501578E0,4.032646E0,2.8711402E0,2.32283E0,1.8911235E0,0E0,0E0,0E0,0E0,0E0,0E0,0E0,0E0],"parents":[2147483647,0,0,1,1,2,2,3,3,4,4,5,5,6,6],"right_children":[2,4,6,8,10,12,14,-1,-1,-1,-1,-1,-1,-1,-1],"split_conditions":[2.5E1,1.31E2,7.17E-1,7.6E1,1.41E2,5.91E-1,1.19E2,-1.9860068E-1,8.486461E-2,1.9840637E-1,-8.5851625E-2,1.1429693E-2,-1.2597775E-1,1.8439138E-2,1.9353156E-1],"split_indices":[7,1,6,2,1,6,1,0,0,0,0,0,0,0,0],"split_type":[0,0,0,0,0,0,0,0,0,0,0,0,0,0,0],"sum_hessian":[6.798433E1,1.3636409E1,5.434792E1,9.697405E0,3.9390042E0,4.4998344E1,9.349577E0,7.710378E0,1.9870263E0,2.1175618E0,1.8214424E0,4.0411995E1,4.586349E0,5.0881367E0,4.2614403E0],"tree_param":{"num_deleted":"0","num_feature":"8","num_nodes":"15","size_leaf_vector":"1"}},{"base_weights":[-1.1427047E-2,-5.339931E-1,4.5574136E-2,-1.8289028E-1,9.2198804E-2,-1.733513E-1,2.1506917E-1,-5.7999898E-2,1.2536812E-1,6.823661E-2,-8.8781506E-2],"categories":[],"categories_nodes":[],"categories_segments":[],"categories_sizes":[],"default_left":[0,0,0,0,0,0,0,0,0,0,0],"id":15,"left_children":[1,3,5,-1,-1,7,9,-1,-1,-1,-1],"loss_changes":[2.0445967E0,2.9764714E0,2.340672E0,0E0,0E0,2.76184E0,3.0961885E0,0E0,0E0,0E0,0E0],"parents":[2147483647,0,0,1,1,2,2,5,5,6,6],"right_children":[2,4,6,-1,-1,8,10,-1,-1,-1,-1],"split_conditions":[9.5E1,3.1E1,3.1E1,-1.8289028E-1,9.2198804E-2,4.22E1,5.5E1,-5.7999898E-2,1.2536812E-1,6.823661E-2,-8.8781506E-2],"split_indices":[1,3,7,0,0,5,7,0,0,0,0],"split_type":[0,0,0,0,0,0,0,0,0,0,0],"sum_hessian":[6.682383E1,5.7491956E0,6.1074635E1,4.2174788E0,1.5317171E0,2.664121E1,3.4433426E1,2.3808157E1,2.833053E0,2.9306961E1,5.126466E0],"tree_param":{"num_deleted":"0","num_feature":"8","num_nodes":"11","size_leaf_vector":"1"}},{"base_weights":[-1.103653E-2,-4.686591E-1,4.7002822E-2,-1.7028861E-1,9.301427E-2,9.385594E-2,-5.4167885E-1,-1.0580523E-1,1.1234243E-1,-3.6916915E-2,4.0881984E-2,-1.9998638E-1,4.6963867E-2],"categories":[],"categories_nodes":[],"categories_segments":[],"categories_sizes":[],"default_left":[0,0,0,0,0,0,0,0,0,0,0,0,0],"id":16,"left_children":[1,3,5,-1,7,9,11,-1,-1,-1,-1,-1,-1],"loss_changes":[1.7904052E0,1.7099581E0,1.7056016E0,0E0,1.4562603E0,1.7746307E0,1.8611962E0,0E0,0E0,0E0,0E0,0E0,0E0],"parents":[2147483647,0,0,1,1,2,2,4,4,5,5,6,6],"right_children":[2,4,6,-1,8,10,12,-1,-1,-1,-1,-1,-1],"split_conditions":[2.64E1,1.31E2,5.5E1,-1.7028861E-1,3E0,1.08E2,8.2E1,-1.0580523E-1,1.1234243E-1,-3.6916915E-2,4.0881984E-2,-1.9998638E-1,4.6963867E-2],"split_indices":[5,1,7,0,0,1,2,0,0,0,0,0,0],"split_type":[0,0,0,0,0,0,0,0,0,0,0,0,0],"sum_hessian":[6.5580154E1,6.584954E0,5.8995205E1,3.6092935E0,2.9756606E0,5.5424538E1,3.5706675E0,1.2233526E0,1.752308E0,1.5561588E1,3.986295E1,2.0645318E0,1.5061357E0],"tree_param":{"num_deleted":"0","num_feature":"8","num_nodes":"13","size_leaf_vector":"1"}},{"base_weights":[-1.47394175E-2,-1.8435791E-1,1.3951221E-2,-2.8386516E-2,1.6932023E-1,-6.0561206E-2,1.883542E-2],"categories":[],"categories_nodes":[],"categories_segments":[],"categories_sizes":[],"default_left":[0,0,0,0,0,0,0],"id":17,"left_children":[1,-1,3,5,-1,-1,-1],"loss_changes":[1.7188717E0,0E0,2.2989051E0,2.12646E0,0E0,0E0,0E0],"parents":[2147483647,0,0,2,2,3,3],"right_children":[2,-1,4,6,-1,-1,-1],"split_conditions":[1.7E1,-1.8435791E-1,1.8E2,2.54E-1,1.6932023E-1,-6.0561206E-2,1.883542E-2],"split_indices":[3,0,1,6,0,0,0],"split_type":[0,0,0,0,0,0,0],"sum_hessian":[6.455572E1,1.0249053E0,6.353081E1,6.137594E1,2.1548731E0,1.849503E1,4.288091E1],"tree_param":{"num_deleted":"0","num_feature":"8","num_nodes":"7","size_leaf_vector":"1"}},{"base_weights":[-1.279197E-2,-4.3979236E-1,3.767523E-2,-1.6200556E-1,6.2461976E-2,-2.7966643E-2,3.9694247E-1,-9.567538E-2,9.456296E-2,6.4433115E-3,-1.501916E-1,1.4447977E-1,-8.831797E-2],"categories":[],"categories_nodes":[],"categories_segments":[],"categories_sizes":[],"default_left":[0,0,0,0,0,0,0,0,0,0,0,0,0],"id":18,"left_children":[1,3,5,-1,7,9,11,-1,-1,-1,-1,-1,-1],"loss_changes":[1.4155694E0,1.3412588E0,1.4020118E0,0E0,1.0858933E0,2.2346957E0,2.8235211E0,0E0,0E0,0E0,0E0,0E0,0E0],"parents":[2147483647,0,0,1,1,2,2,4,4,5,5,6,6],"right_children":[2,4,6,-1,8,10,12,-1,-1,-1,-1,-1,-1],"split_conditions":[2.64E1,1.31E2,7.32E-1,-1.6200556E-1,3E0,5.5E1,3.68E1,-9.567538E-2,9.456296E-2,6.4433115E-3,-1.501916E-1,1.4447977E-1,-8.831797E-2],"split_indices":[5,1,6,0,0,7,5,0,0,0,0,0,0],"split_type":[0,0,0,0,0,0,0,0,0,0,0,0,0],"sum_hessian":[6.392026E1,5.940825E0,5.797944E1,3.0671213E0,2.873704E0,4.980221E1,8.177227E0,1.1682277E0,1.7054763E0,4.685717E1,2.9450414E0,5.9906106E0,2.1866167E0],"tree_param":{"num_deleted":"0","num_feature":"8","num_nodes":"13","size_leaf_vector":"1"}},{"base_weights":[-1.4799239E-2,-4.5547265E-1,3.03497E-2,-1.729862E-1,8.668863E-2,-1.5472881E-1,1.7472877E-1,-4.7801103E-2,1.6788326E-1,1.5193501E-1,1.1346757E-2],"categories":[],"categories_nodes":[],"categories_segments":[],"categories_sizes":[],"default_left":[0,0,0,0,0,0,0,0,0,0,0],"id":19,"left_children":[1,3,5,-1,-1,7,9,-1,-1,-1,-1],"loss_changes":[1.2926339E0,2.5717492E0,1.609994E0,0E0,0E0,2.4201205E0,2.286233E0,0E0,0E0,0E0,0E0],"parents":[2147483647,0,0,1,1,2,2,5,5,6,6],"right_children":[2,4,6,-1,-1,8,10,-1,-1,-1,-1],"split_conditions":[9.5E1,3.1E1,3.1E1,-1.729862E-1,8.668863E-2,7E0,2E0,-4.7801103E-2,1.6788326E-1,1.5193501E-1,1.1346757E-2],"split_indices":[1,3,7,0,0,0,0,0,0,0,0],"split_type":[0,0,0,0,0,0,0,0,0,0,0],"sum_hessian":[6.3274956E1,5.0357366E0,5.8239216E1,3.466128E0,1.5696086E0,2.5490911E1,3.2748306E1,2.419907E1,1.291842E0,4.584246E0,2.816406E1],"tree_param":{"num_deleted":"0","num_feature":"8","num_nodes":"11","size_leaf_vector":"1"}}]},"name":"gbtree"},"learner_model_param":{"base_score":"3.4288013E-1","boost_from_average":"1","num_class":"0","num_feature":"8","num_target":"1"},"objective":{"name":"binary:logistic","reg_loss_param":{"scale_pos_weight":"1"}}},"version":[2,1,4]}